FANN_FLO_2.1
num_layers=3
learning_rate=0.700000
connection_rate=1.000000
network_type=0
learning_momentum=0.000000
training_algorithm=0
train_error_function=1
train_stop_function=1
cascade_output_change_fraction=0.010000
quickprop_decay=-0.000100
quickprop_mu=1.750000
rprop_increase_factor=1.200000
rprop_decrease_factor=0.500000
rprop_delta_min=0.000000
rprop_delta_max=50.000000
rprop_delta_zero=0.100000
cascade_output_stagnation_epochs=12
cascade_candidate_change_fraction=0.010000
cascade_candidate_stagnation_epochs=12
cascade_max_out_epochs=150
cascade_min_out_epochs=50
cascade_max_cand_epochs=150
cascade_min_cand_epochs=50
cascade_num_candidate_groups=2
bit_fail_limit=9.99999977648258209229e-03
cascade_candidate_limit=1.00000000000000000000e+03
cascade_weight_multiplier=4.00000005960464477539e-01
cascade_activation_functions_count=10
cascade_activation_functions=3 5 7 8 10 11 14 15 16 17 
cascade_activation_steepnesses_count=4
cascade_activation_steepnesses=2.50000000000000000000e-01 5.00000000000000000000e-01 7.50000000000000000000e-01 1.00000000000000000000e+00 
layer_sizes=3 6 3 
scale_included=0
neurons (num_inputs, activation_function, activation_steepness)=(0, 0, 0.00000000000000000000e+00) (0, 0, 0.00000000000000000000e+00) (0, 0, 0.00000000000000000000e+00) (3, 5, 1.00000000000000000000e+00) (3, 5, 1.00000000000000000000e+00) (3, 5, 1.00000000000000000000e+00) (3, 5, 1.00000000000000000000e+00) (3, 5, 1.00000000000000000000e+00) (0, 5, 1.00000000000000000000e+00) (6, 5, 1.00000000000000000000e+00) (6, 5, 1.00000000000000000000e+00) (0, 5, 1.00000000000000000000e+00) 
connections (connected_to_neuron, weight)=(0, -4.16499555110931396484e-01) (1, 2.31772637367248535156e+00) (2, -2.13753628730773925781e+00) (0, -3.80568593740463256836e-01) (1, 3.08066558837890625000e+00) (2, -4.32136654853820800781e-01) (0, 3.32827568054199218750e+00) (1, 5.56927502155303955078e-01) (2, -3.63572406768798828125e+00) (0, 5.67113398574292659760e-04) (1, 2.85774958319962024689e-03) (2, -9.60903475061058998108e-04) (0, 2.16151976585388183594e+00) (1, 5.19504964351654052734e-01) (2, -8.94602596759796142578e-01) (3, -3.95294912159442901611e-02) (4, -3.85398231446743011475e-02) (5, 1.04638051986694335938e+00) (6, 8.47719129524193704128e-05) (7, 4.52027171850204467773e-01) (8, 1.31735634803771972656e+00) (3, 1.32978570461273193359e+00) (4, 2.17840790748596191406e-01) (5, -2.54015102982521057129e-02) (6, 1.09344509837683290243e-04) (7, -4.64839227497577667236e-02) (8, 1.45981252193450927734e+00) 
